digraph Tree {
node [shape=box, style="rounded", color="black", fontname=helvetica] ;
edge [fontname=helvetica] ;
0 [label="fumbles_dif <= -0.4\ngini = 0.5\nsamples = 121\nvalue = [90.6, 98.7]"] ;
1 [label="turnovers_dif <= -0.4\ngini = 0.5\nsamples = 36\nvalue = [36.6, 19.7]"] ;
0 -> 1 [labeldistance=2.5, labelangle=45, headlabel="True"] ;
2 [label="points_dif <= -6.4\ngini = 0.5\nsamples = 17\nvalue = [11.6, 14.5]"] ;
1 -> 2 ;
3 [label="gini = 0.0\nsamples = 3\nvalue = [6.8, 0.0]"] ;
2 -> 3 ;
4 [label="third_down_perc_dif <= -0.1\ngini = 0.4\nsamples = 14\nvalue = [4.8, 14.5]"] ;
2 -> 4 ;
5 [label="gini = 0.0\nsamples = 1\nvalue = [1.9, 0.0]"] ;
4 -> 5 ;
6 [label="total_yards_dif <= 64.8\ngini = 0.3\nsamples = 13\nvalue = [2.9, 14.5]"] ;
4 -> 6 ;
7 [label="times_sacked_dif <= -2.3\ngini = 0.0\nsamples = 10\nvalue = [0.0, 14.5]"] ;
6 -> 7 ;
8 [label="gini = 0.0\nsamples = 1\nvalue = [0.0, 1.0]"] ;
7 -> 8 ;
9 [label="gini = 0.0\nsamples = 9\nvalue = [0.0, 13.5]"] ;
7 -> 9 ;
10 [label="gini = -0.0\nsamples = 3\nvalue = [2.9, 0.0]"] ;
6 -> 10 ;
11 [label="yards_from_penalties_dif <= -13.4\ngini = 0.3\nsamples = 19\nvalue = [25.1, 5.2]"] ;
1 -> 11 ;
12 [label="gini = 0.0\nsamples = 2\nvalue = [0.0, 2.1]"] ;
11 -> 12 ;
13 [label="rush_yards_dif <= -30.0\ngini = 0.2\nsamples = 17\nvalue = [25.1, 3.1]"] ;
11 -> 13 ;
14 [label="interceptions_dif <= 0.2\ngini = 0.5\nsamples = 6\nvalue = [2.9, 3.1]"] ;
13 -> 14 ;
15 [label="gini = 0.0\nsamples = 2\nvalue = [1.9, 0.0]"] ;
14 -> 15 ;
16 [label="first_downs_dif <= -4.6\ngini = 0.4\nsamples = 4\nvalue = [1.0, 3.1]"] ;
14 -> 16 ;
17 [label="gini = 0.0\nsamples = 1\nvalue = [1.0, 0.0]"] ;
16 -> 17 ;
18 [label="gini = -0.0\nsamples = 3\nvalue = [0.0, 3.1]"] ;
16 -> 18 ;
19 [label="gini = 0.0\nsamples = 11\nvalue = [22.2, 0.0]"] ;
13 -> 19 ;
20 [label="win_perc_dif <= 0.3\ngini = 0.5\nsamples = 85\nvalue = [54.0, 78.9]"] ;
0 -> 20 [labeldistance=2.5, labelangle=-45, headlabel="False"] ;
21 [label="yards_from_penalties_dif <= -0.8\ngini = 0.5\nsamples = 76\nvalue = [54.0, 65.4]"] ;
20 -> 21 ;
22 [label="net_pass_yards_dif <= 2.4\ngini = 0.4\nsamples = 42\nvalue = [17.4, 39.5]"] ;
21 -> 22 ;
23 [label="pass_yards_dif <= -40.5\ngini = 0.5\nsamples = 26\nvalue = [13.5, 16.6]"] ;
22 -> 23 ;
24 [label="fumbles_dif <= 0.9\ngini = 0.4\nsamples = 12\nvalue = [3.9, 10.4]"] ;
23 -> 24 ;
25 [label="rush_touchdowns_dif <= -0.3\ngini = 0.5\nsamples = 8\nvalue = [3.9, 4.2]"] ;
24 -> 25 ;
26 [label="gini = 0.0\nsamples = 3\nvalue = [2.9, 0.0]"] ;
25 -> 26 ;
27 [label="pass_touchdowns_dif <= -0.6\ngini = 0.3\nsamples = 5\nvalue = [1.0, 4.2]"] ;
25 -> 27 ;
28 [label="gini = 0.0\nsamples = 1\nvalue = [1.0, 0.0]"] ;
27 -> 28 ;
29 [label="gini = 0.0\nsamples = 4\nvalue = [0.0, 4.2]"] ;
27 -> 29 ;
30 [label="gini = 0.0\nsamples = 4\nvalue = [0.0, 6.2]"] ;
24 -> 30 ;
31 [label="third_down_perc_dif <= -0.1\ngini = 0.5\nsamples = 14\nvalue = [9.6, 6.2]"] ;
23 -> 31 ;
32 [label="gini = 0.0\nsamples = 2\nvalue = [0.0, 4.2]"] ;
31 -> 32 ;
33 [label="interceptions_dif <= -0.8\ngini = 0.3\nsamples = 12\nvalue = [9.6, 2.1]"] ;
31 -> 33 ;
34 [label="gini = 0.0\nsamples = 1\nvalue = [0.0, 1.0]"] ;
33 -> 34 ;
35 [label="net_pass_yards_dif <= -2.2\ngini = 0.2\nsamples = 11\nvalue = [9.6, 1.0]"] ;
33 -> 35 ;
36 [label="gini = 0.0\nsamples = 9\nvalue = [8.7, 0.0]"] ;
35 -> 36 ;
37 [label="pass_touchdowns_dif <= 0.2\ngini = 0.5\nsamples = 2\nvalue = [1.0, 1.0]"] ;
35 -> 37 ;
38 [label="gini = 0.0\nsamples = 1\nvalue = [1.0, 0.0]"] ;
37 -> 38 ;
39 [label="gini = -0.0\nsamples = 1\nvalue = [0.0, 1.0]"] ;
37 -> 39 ;
40 [label="net_pass_yards_dif <= 60.5\ngini = 0.2\nsamples = 16\nvalue = [3.9, 22.8]"] ;
22 -> 40 ;
41 [label="penalties_dif <= -2.0\ngini = 0.1\nsamples = 10\nvalue = [1.0, 18.7]"] ;
40 -> 41 ;
42 [label="pass_attempts_dif <= 5.8\ngini = 0.5\nsamples = 2\nvalue = [1.0, 1.0]"] ;
41 -> 42 ;
43 [label="gini = 0.0\nsamples = 1\nvalue = [1.0, 0.0]"] ;
42 -> 43 ;
44 [label="gini = -0.0\nsamples = 1\nvalue = [0.0, 1.0]"] ;
42 -> 44 ;
45 [label="yards_from_penalties_dif <= -11.1\ngini = 0.0\nsamples = 8\nvalue = [0.0, 17.7]"] ;
41 -> 45 ;
46 [label="gini = 0.0\nsamples = 1\nvalue = [0.0, 2.1]"] ;
45 -> 46 ;
47 [label="gini = 0.0\nsamples = 7\nvalue = [0.0, 15.6]"] ;
45 -> 47 ;
48 [label="net_pass_yards_dif <= 93.1\ngini = 0.5\nsamples = 6\nvalue = [2.9, 4.2]"] ;
40 -> 48 ;
49 [label="gini = 0.0\nsamples = 3\nvalue = [2.9, 0.0]"] ;
48 -> 49 ;
50 [label="gini = -0.0\nsamples = 3\nvalue = [0.0, 4.2]"] ;
48 -> 50 ;
51 [label="pass_completions_dif <= 2.4\ngini = 0.5\nsamples = 34\nvalue = [36.6, 26.0]"] ;
21 -> 51 ;
52 [label="time_of_possession_dif <= -186.3\ngini = 0.5\nsamples = 27\nvalue = [26.0, 24.9]"] ;
51 -> 52 ;
53 [label="gini = 0.0\nsamples = 5\nvalue = [8.7, 0.0]"] ;
52 -> 53 ;
54 [label="fumbles_dif <= 0.7\ngini = 0.5\nsamples = 22\nvalue = [17.4, 24.9]"] ;
52 -> 54 ;
55 [label="pass_touchdowns_dif <= 0.9\ngini = 0.4\nsamples = 20\nvalue = [12.5, 24.9]"] ;
54 -> 55 ;
56 [label="fumbles_dif <= -0.2\ngini = 0.4\nsamples = 18\nvalue = [8.7, 24.9]"] ;
55 -> 56 ;
57 [label="gini = 0.0\nsamples = 2\nvalue = [3.9, 0.0]"] ;
56 -> 57 ;
58 [label="penalties_dif <= -0.4\ngini = 0.3\nsamples = 16\nvalue = [4.8, 24.9]"] ;
56 -> 58 ;
59 [label="gini = 0.0\nsamples = 2\nvalue = [2.9, 0.0]"] ;
58 -> 59 ;
60 [label="rush_yards_dif <= 27.5\ngini = 0.1\nsamples = 14\nvalue = [1.9, 24.9]"] ;
58 -> 60 ;
61 [label="pass_touchdowns_dif <= -0.3\ngini = 0.1\nsamples = 12\nvalue = [1.0, 23.9]"] ;
60 -> 61 ;
62 [label="net_pass_yards_dif <= 27.6\ngini = 0.3\nsamples = 3\nvalue = [1.0, 4.2]"] ;
61 -> 62 ;
63 [label="gini = 0.0\nsamples = 2\nvalue = [0.0, 4.2]"] ;
62 -> 63 ;
64 [label="gini = 0.0\nsamples = 1\nvalue = [1.0, 0.0]"] ;
62 -> 64 ;
65 [label="gini = 0.0\nsamples = 9\nvalue = [0.0, 19.7]"] ;
61 -> 65 ;
66 [label="points_dif <= 0.4\ngini = 0.5\nsamples = 2\nvalue = [1.0, 1.0]"] ;
60 -> 66 ;
67 [label="gini = 0.0\nsamples = 1\nvalue = [1.0, 0.0]"] ;
66 -> 67 ;
68 [label="gini = -0.0\nsamples = 1\nvalue = [0.0, 1.0]"] ;
66 -> 68 ;
69 [label="turnovers_dif <= 0.6\ngini = 0.0\nsamples = 2\nvalue = [3.9, 0.0]"] ;
55 -> 69 ;
70 [label="gini = 0.0\nsamples = 1\nvalue = [1.9, 0.0]"] ;
69 -> 70 ;
71 [label="gini = 0.0\nsamples = 1\nvalue = [1.9, 0.0]"] ;
69 -> 71 ;
72 [label="pass_attempts_dif <= -15.1\ngini = 0.0\nsamples = 2\nvalue = [4.8, 0.0]"] ;
54 -> 72 ;
73 [label="gini = 0.0\nsamples = 1\nvalue = [1.9, 0.0]"] ;
72 -> 73 ;
74 [label="gini = 0.0\nsamples = 1\nvalue = [2.9, 0.0]"] ;
72 -> 74 ;
75 [label="yards_from_penalties_dif <= 13.0\ngini = 0.2\nsamples = 7\nvalue = [10.6, 1.0]"] ;
51 -> 75 ;
76 [label="rush_attempts_dif <= -12.1\ngini = 0.0\nsamples = 6\nvalue = [10.6, 0.0]"] ;
75 -> 76 ;
77 [label="gini = 0.0\nsamples = 1\nvalue = [1.0, 0.0]"] ;
76 -> 77 ;
78 [label="gini = 0.0\nsamples = 5\nvalue = [9.6, 0.0]"] ;
76 -> 78 ;
79 [label="gini = -0.0\nsamples = 1\nvalue = [0.0, 1.0]"] ;
75 -> 79 ;
80 [label="turnovers_dif <= -0.9\ngini = 0.0\nsamples = 9\nvalue = [0.0, 13.5]"] ;
20 -> 80 ;
81 [label="gini = 0.0\nsamples = 1\nvalue = [0.0, 2.1]"] ;
80 -> 81 ;
82 [label="gini = 0.0\nsamples = 8\nvalue = [0.0, 11.4]"] ;
80 -> 82 ;
}