digraph Tree {
node [shape=box, style="rounded", color="black", fontname=helvetica] ;
edge [fontname=helvetica] ;
0 [label="net_pass_yards_dif <= 42.5\ngini = 0.5\nsamples = 122\nvalue = [95.5, 93.5]"] ;
1 [label="win_perc_dif <= -0.1\ngini = 0.5\nsamples = 95\nvalue = [64.7, 84.4]"] ;
0 -> 1 [labeldistance=2.5, labelangle=45, headlabel="True"] ;
2 [label="points_dif <= 2.6\ngini = 0.4\nsamples = 40\nvalue = [42.8, 20.1]"] ;
1 -> 2 ;
3 [label="win_perc_dif <= -0.5\ngini = 0.4\nsamples = 37\nvalue = [42.8, 15.1]"] ;
2 -> 3 ;
4 [label="pass_attempts_dif <= 3.2\ngini = 0.4\nsamples = 8\nvalue = [4.0, 9.0]"] ;
3 -> 4 ;
5 [label="gini = 0.0\nsamples = 5\nvalue = [0.0, 9.0]"] ;
4 -> 5 ;
6 [label="rush_touchdowns_dif <= -1.1\ngini = 0.0\nsamples = 3\nvalue = [4.0, 0.0]"] ;
4 -> 6 ;
7 [label="gini = 0.0\nsamples = 1\nvalue = [2.0, 0.0]"] ;
6 -> 7 ;
8 [label="gini = 0.0\nsamples = 2\nvalue = [2.0, 0.0]"] ;
6 -> 8 ;
9 [label="total_yards_dif <= -57.3\ngini = 0.2\nsamples = 29\nvalue = [38.8, 6.0]"] ;
3 -> 9 ;
10 [label="time_of_possession_dif <= 2.6\ngini = 0.5\nsamples = 7\nvalue = [7.0, 4.0]"] ;
9 -> 10 ;
11 [label="yards_from_penalties_dif <= -22.3\ngini = 0.0\nsamples = 5\nvalue = [7.0, 0.0]"] ;
10 -> 11 ;
12 [label="gini = 0.0\nsamples = 1\nvalue = [1.0, 0.0]"] ;
11 -> 12 ;
13 [label="gini = 0.0\nsamples = 4\nvalue = [6.0, 0.0]"] ;
11 -> 13 ;
14 [label="gini = 0.0\nsamples = 2\nvalue = [0.0, 4.0]"] ;
10 -> 14 ;
15 [label="rush_yards_dif <= -43.9\ngini = 0.1\nsamples = 22\nvalue = [31.8, 2.0]"] ;
9 -> 15 ;
16 [label="time_of_possession_dif <= -142.2\ngini = 0.4\nsamples = 3\nvalue = [3.0, 1.0]"] ;
15 -> 16 ;
17 [label="gini = 0.0\nsamples = 2\nvalue = [3.0, 0.0]"] ;
16 -> 17 ;
18 [label="gini = 0.0\nsamples = 1\nvalue = [0.0, 1.0]"] ;
16 -> 18 ;
19 [label="turnovers_dif <= -0.2\ngini = 0.1\nsamples = 19\nvalue = [28.8, 1.0]"] ;
15 -> 19 ;
20 [label="pass_completions_dif <= -3.0\ngini = 0.3\nsamples = 3\nvalue = [5.0, 1.0]"] ;
19 -> 20 ;
21 [label="gini = 0.0\nsamples = 1\nvalue = [0.0, 1.0]"] ;
20 -> 21 ;
22 [label="gini = 0.0\nsamples = 2\nvalue = [5.0, 0.0]"] ;
20 -> 22 ;
23 [label="gini = -0.0\nsamples = 16\nvalue = [23.9, 0.0]"] ;
19 -> 23 ;
24 [label="gini = -0.0\nsamples = 3\nvalue = [0.0, 5.0]"] ;
2 -> 24 ;
25 [label="penalties_dif <= -0.2\ngini = 0.4\nsamples = 55\nvalue = [21.9, 64.3]"] ;
1 -> 25 ;
26 [label="interceptions_dif <= -0.8\ngini = 0.5\nsamples = 37\nvalue = [21.9, 36.2]"] ;
25 -> 26 ;
27 [label="points_dif <= -6.3\ngini = 0.1\nsamples = 8\nvalue = [1.0, 13.1]"] ;
26 -> 27 ;
28 [label="gini = 0.0\nsamples = 1\nvalue = [1.0, 0.0]"] ;
27 -> 28 ;
29 [label="gini = 0.0\nsamples = 7\nvalue = [0.0, 13.1]"] ;
27 -> 29 ;
30 [label="interceptions_dif <= 0.3\ngini = 0.5\nsamples = 29\nvalue = [20.9, 23.1]"] ;
26 -> 30 ;
31 [label="net_pass_yards_dif <= -20.9\ngini = 0.5\nsamples = 23\nvalue = [20.9, 16.1]"] ;
30 -> 31 ;
32 [label="yards_from_penalties_dif <= -7.4\ngini = 0.5\nsamples = 14\nvalue = [8.0, 14.1]"] ;
31 -> 32 ;
33 [label="third_down_perc_dif <= -0.0\ngini = 0.2\nsamples = 8\nvalue = [2.0, 12.1]"] ;
32 -> 33 ;
34 [label="gini = 0.0\nsamples = 5\nvalue = [0.0, 11.1]"] ;
33 -> 34 ;
35 [label="fumbles_dif <= -1.0\ngini = 0.4\nsamples = 3\nvalue = [2.0, 1.0]"] ;
33 -> 35 ;
36 [label="gini = 0.0\nsamples = 1\nvalue = [0.0, 1.0]"] ;
35 -> 36 ;
37 [label="turnovers_dif <= 0.2\ngini = 0.0\nsamples = 2\nvalue = [2.0, 0.0]"] ;
35 -> 37 ;
38 [label="gini = 0.0\nsamples = 1\nvalue = [1.0, 0.0]"] ;
37 -> 38 ;
39 [label="gini = 0.0\nsamples = 1\nvalue = [1.0, 0.0]"] ;
37 -> 39 ;
40 [label="time_of_possession_dif <= 269.8\ngini = 0.4\nsamples = 6\nvalue = [6.0, 2.0]"] ;
32 -> 40 ;
41 [label="gini = 0.0\nsamples = 4\nvalue = [6.0, 0.0]"] ;
40 -> 41 ;
42 [label="gini = 0.0\nsamples = 2\nvalue = [0.0, 2.0]"] ;
40 -> 42 ;
43 [label="first_downs_dif <= 6.7\ngini = 0.2\nsamples = 9\nvalue = [12.9, 2.0]"] ;
31 -> 43 ;
44 [label="gini = 0.0\nsamples = 7\nvalue = [12.9, 0.0]"] ;
43 -> 44 ;
45 [label="gini = 0.0\nsamples = 2\nvalue = [0.0, 2.0]"] ;
43 -> 45 ;
46 [label="gini = -0.0\nsamples = 6\nvalue = [0.0, 7.0]"] ;
30 -> 46 ;
47 [label="gini = -0.0\nsamples = 18\nvalue = [0.0, 28.1]"] ;
25 -> 47 ;
48 [label="points_dif <= -2.2\ngini = 0.4\nsamples = 27\nvalue = [30.8, 9.0]"] ;
0 -> 48 [labeldistance=2.5, labelangle=-45, headlabel="False"] ;
49 [label="gini = 0.0\nsamples = 3\nvalue = [0.0, 3.0]"] ;
48 -> 49 ;
50 [label="time_of_possession_dif <= 100.0\ngini = 0.3\nsamples = 24\nvalue = [30.8, 6.0]"] ;
48 -> 50 ;
51 [label="pass_yards_dif <= 113.0\ngini = 0.1\nsamples = 17\nvalue = [26.9, 1.0]"] ;
50 -> 51 ;
52 [label="gini = 0.0\nsamples = 14\nvalue = [22.9, 0.0]"] ;
51 -> 52 ;
53 [label="net_pass_yards_dif <= 149.0\ngini = 0.3\nsamples = 3\nvalue = [4.0, 1.0]"] ;
51 -> 53 ;
54 [label="gini = 0.0\nsamples = 1\nvalue = [0.0, 1.0]"] ;
53 -> 54 ;
55 [label="gini = 0.0\nsamples = 2\nvalue = [4.0, 0.0]"] ;
53 -> 55 ;
56 [label="yards_lost_from_sacks_dif <= -3.4\ngini = 0.5\nsamples = 7\nvalue = [4.0, 5.0]"] ;
50 -> 56 ;
57 [label="rush_attempts_dif <= 14.2\ngini = 0.3\nsamples = 3\nvalue = [4.0, 1.0]"] ;
56 -> 57 ;
58 [label="gini = 0.0\nsamples = 2\nvalue = [4.0, 0.0]"] ;
57 -> 58 ;
59 [label="gini = 0.0\nsamples = 1\nvalue = [0.0, 1.0]"] ;
57 -> 59 ;
60 [label="first_downs_dif <= 1.0\ngini = 0.0\nsamples = 4\nvalue = [0.0, 4.0]"] ;
56 -> 60 ;
61 [label="gini = 0.0\nsamples = 1\nvalue = [0.0, 1.0]"] ;
60 -> 61 ;
62 [label="gini = 0.0\nsamples = 3\nvalue = [0.0, 3.0]"] ;
60 -> 62 ;
}